{
  "b1": [
    1.0982571042794923e-09,
    0.17281468458317034,
    0.9699580415687542,
    0.8285212391893864,
    -0.4774020063544425,
    2.201040968113116,
    0.5115856214283898,
    -1.1766075187396785
  ],
  "b2": -1.4831736668585191,
  "dataset_version": "relu_teacher_v2",
  "hidden_size": 8,
  "input_size": 4,
  "schema_version": 1,
  "selected_epoch": 51,
  "selection_mode": "quantized_validation_shadow",
  "source": "trained_float_selected_shadow",
  "training_seed": 20260312,
  "w1": [
    [
      3.838976811910861e-08,
      5.223577818149966e-11,
      -1.6813861519811364e-08,
      1.3676385933967072e-10
    ],
    [
      0.4755211653353455,
      -0.4287790325329005,
      -0.4404207750271417,
      -0.5914888648261987
    ],
    [
      1.5452791653534994,
      0.5910235600824347,
      0.706710131669824,
      -0.5098004156697349
    ],
    [
      0.49789212263457555,
      -0.49496207809072995,
      -0.2509010752862723,
      -0.7639128793042187
    ],
    [
      -0.5981449700151423,
      0.36202519134199546,
      -0.4307273354276626,
      -0.3550979653268061
    ],
    [
      -0.6001411861503709,
      0.5411234685864755,
      -1.3320720020858292,
      1.0467973279304597
    ],
    [
      -0.05524630663072664,
      -1.484843898431176,
      1.2890146030642051,
      -1.2836780909580991
    ],
    [
      0.9529981423431957,
      1.7156338586010065,
      0.26718624799899304,
      0.2630021858372755
    ]
  ],
  "w2": [
    -0.05617335343915827,
    -0.4939374272623533,
    0.9609115196407488,
    0.4997311648623226,
    -0.5225147176254753,
    -0.8355587476512467,
    1.1552863328006366,
    -1.0717786939180423
  ]
}
