{
  "b1": [
    -0.00026010720378597793,
    0.4545286369337245,
    1.066228097585292,
    1.1379045720790502,
    -0.4018963942268127,
    1.8170205455222663,
    0.22676618504302531,
    -1.3059358865534016
  ],
  "b2": -1.596131562625624,
  "dataset_version": "relu_teacher_v2",
  "hidden_size": 8,
  "input_size": 4,
  "schema_version": 1,
  "selected_epoch": 22,
  "selection_mode": "float_validation",
  "source": "trained_float_best",
  "training_seed": 20260312,
  "w1": [
    [
      0.010355318215244224,
      7.471498480152712e-06,
      0.003668588165211232,
      2.4911795618606312e-05
    ],
    [
      0.4831014787725274,
      -0.5219744123314332,
      -0.6184692879859341,
      -0.8113755237586836
    ],
    [
      1.511483633940404,
      0.7955757305356279,
      0.6085712418425858,
      -0.34146247574469407
    ],
    [
      0.509564965978173,
      -0.6161077652440631,
      -0.6930696825250088,
      -0.7518609726345733
    ],
    [
      -0.730723936259307,
      0.5017623936737639,
      0.1421687436931442,
      -0.44442224184315676
    ],
    [
      -0.5061457397884707,
      0.5090922902834366,
      -0.809808908596599,
      0.9569728991494115
    ],
    [
      -0.1380045305584755,
      -1.4713040712883134,
      0.9939804677555405,
      -1.1309695385554108
    ],
    [
      0.9724718754211572,
      1.5082432008395317,
      0.49325053127244606,
      0.19059415443509614
    ]
  ],
  "w2": [
    -0.05620776260069011,
    -0.4978290728090936,
    1.1744359307471743,
    0.6622064059972963,
    -0.4999451423852183,
    -0.731002335802823,
    1.0066786468467042,
    -0.9669317562157081
  ]
}
